{
    "fitness": 1276.21533203125,
    "generation": 1024,
    "layerArrays": [
        {
            "weightsArrays": [
                {
                    "weights": [
                        -0.002188676269724965,
                        0.26249799132347109,
                        0.23326395452022553,
                        -0.2429574877023697,
                        0.21598052978515626,
                        -0.44808852672576907,
                        0.011301606893539429,
                        0.8994258046150208,
                        0.1479981392621994,
                        0.0702313780784607
                    ]
                },
                {
                    "weights": [
                        -0.012876484543085099,
                        0.09966302663087845,
                        0.1564924567937851,
                        -0.23209339380264283,
                        -0.18658863008022309,
                        0.19919437170028687,
                        -0.3573353588581085,
                        0.12976211309432984,
                        0.21416698396205903,
                        -0.02831679955124855
                    ]
                },
                {
                    "weights": [
                        -0.20494824647903443,
                        -0.39392709732055666,
                        0.022813115268945695,
                        -0.043496228754520419,
                        0.6985315680503845,
                        -0.3450610637664795,
                        0.07044631242752075,
                        0.6546785831451416,
                        0.043473102152347568,
                        0.025167375802993776
                    ]
                },
                {
                    "weights": [
                        -0.12351448833942414,
                        -0.041071243584156039,
                        0.13866975903511048,
                        0.9377020001411438,
                        -0.2133258730173111,
                        -0.4865763485431671,
                        0.06256546825170517,
                        -0.43509697914123537,
                        0.027821293100714685,
                        -0.5382494330406189
                    ]
                },
                {
                    "weights": [
                        -0.0016951438738033176,
                        -0.21776241064071656,
                        0.06132328882813454,
                        0.2572672665119171,
                        0.39748573303222659,
                        0.5205653309822083,
                        -0.14145314693450929,
                        0.04160083085298538,
                        0.09289192408323288,
                        0.10709601640701294
                    ]
                },
                {
                    "weights": [
                        0.6824411153793335,
                        0.06641298532485962,
                        0.18587860465049745,
                        -0.08716215193271637,
                        0.710574746131897,
                        0.3706245422363281,
                        0.9965410232543945,
                        -0.5254772305488586,
                        -0.0940447524189949,
                        0.29068899154663088
                    ]
                },
                {
                    "weights": [
                        0.0637105330824852,
                        9.49238980751943e-8,
                        0.36014771461486819,
                        0.04667705297470093,
                        -0.06804905086755753,
                        -0.3230590522289276,
                        0.5246099233627319,
                        -0.44697248935699465,
                        0.0030876779928803446,
                        -0.4365580081939697
                    ]
                },
                {
                    "weights": [
                        0.46373188495635989,
                        -0.08145546913146973,
                        0.026397736743092538,
                        0.3547825813293457,
                        0.038819096982479098,
                        0.4002906084060669,
                        0.10484877973794937,
                        -0.5307145118713379,
                        0.39746612310409548,
                        0.3914337158203125
                    ]
                },
                {
                    "weights": [
                        -0.11675774306058884,
                        -0.09873642772436142,
                        0.14990507066249848,
                        0.11191660165786743,
                        -0.04941064119338989,
                        -0.2917201519012451,
                        0.148284912109375,
                        0.45865607261657717,
                        -0.015524514950811863,
                        -0.4714042842388153
                    ]
                },
                {
                    "weights": [
                        0.35343217849731448,
                        0.13757461309432984,
                        0.27745842933654787,
                        0.22096417844295503,
                        -0.2119547724723816,
                        -0.053143441677093509,
                        0.2860344648361206,
                        0.042890530079603198,
                        0.10441991686820984,
                        -0.5110867619514465
                    ]
                },
                {
                    "weights": [
                        0.1659679114818573,
                        -0.16140109300613404,
                        0.2422456592321396,
                        0.3890937566757202,
                        0.426920086145401,
                        -0.2984786629676819,
                        0.016052983701229097,
                        1.2672535181045533,
                        -0.1388288140296936,
                        0.46884357929229739
                    ]
                },
                {
                    "weights": [
                        0.0323772132396698,
                        -0.0061605810187757019,
                        -0.8385763168334961,
                        -0.12817829847335816,
                        0.2162356674671173,
                        -0.15507540106773377,
                        -0.1368207037448883,
                        0.3093143701553345,
                        -0.002351452363654971,
                        -0.02455269545316696
                    ]
                },
                {
                    "weights": [
                        0.00433521019294858,
                        -0.05519479513168335,
                        0.6440242528915405,
                        0.002669289940968156,
                        0.28713691234588625,
                        0.13777926564216615,
                        -0.012380694039165974,
                        0.17837916314601899,
                        -0.4254128932952881,
                        0.03175972402095795
                    ]
                },
                {
                    "weights": [
                        0.6729816794395447,
                        0.014434781856834889,
                        -0.42723143100738528,
                        -0.32164403796195986,
                        0.27289190888404848,
                        -0.21373027563095094,
                        0.06853639334440232,
                        -0.07247430086135864,
                        0.5695494413375855,
                        0.24986381828784944
                    ]
                },
                {
                    "weights": [
                        0.8230094313621521,
                        -0.25670942664146426,
                        0.003785861423239112,
                        -0.13567383587360383,
                        -0.01197531446814537,
                        0.20140624046325684,
                        0.36723923683166506,
                        0.2509223222732544,
                        -0.13661397993564607,
                        0.0241566002368927
                    ]
                },
                {
                    "weights": [
                        0.20700111985206605,
                        0.12026496976613999,
                        -4.7394280433654789,
                        -0.27213621139526369,
                        -0.13393579423427583,
                        -0.2160770297050476,
                        0.04470543563365936,
                        0.36982443928718569,
                        -0.019123708829283716,
                        -0.05871337279677391
                    ]
                },
                {
                    "weights": [
                        0.3417022228240967,
                        -0.348544716835022,
                        -0.4261109232902527,
                        -0.0013929271372035146,
                        -0.3620566129684448,
                        -0.07143241167068482,
                        -0.026533272117376329,
                        -0.8363662958145142,
                        -0.09397488832473755,
                        -0.00007818973244866356
                    ]
                },
                {
                    "weights": [
                        0.08334916830062866,
                        0.14331816136837007,
                        1.6801013946533204,
                        0.011400401592254639,
                        0.473108172416687,
                        0.23653557896614076,
                        -0.1588975191116333,
                        -0.474965900182724,
                        0.49278318881988528,
                        0.33547210693359377
                    ]
                },
                {
                    "weights": [
                        5.849721908569336,
                        0.004310037940740585,
                        -0.15296301245689393,
                        -0.32493138313293459,
                        -0.686697244644165,
                        -0.0006749668391421437,
                        0.2257576882839203,
                        -0.28610172867774966,
                        1.6347242593765259,
                        0.00007980340888025239
                    ]
                },
                {
                    "weights": [
                        0.2355724424123764,
                        -0.07496468722820282,
                        0.4678897559642792,
                        -0.029563970863819124,
                        0.0009651487926021218,
                        -0.04406721517443657,
                        0.39339935779571535,
                        0.10936230421066284,
                        0.7931413054466248,
                        0.04949218034744263
                    ]
                }
            ]
        },
        {
            "weightsArrays": [
                {
                    "weights": [
                        -0.013886592350900174,
                        -0.14463847875595094,
                        0.017831668257713319,
                        0.006804157514125109,
                        -0.2357228845357895,
                        -0.08023905754089356,
                        -0.05977052077651024,
                        0.1887989491224289,
                        -0.31731677055358889,
                        -0.02863556146621704,
                        -0.015826378017663957,
                        0.0004694662638939917,
                        -0.35923099517822268,
                        -0.27407076954841616,
                        -0.2545323371887207,
                        0.053318750113248828,
                        -0.13680213689804078,
                        0.004100224003195763,
                        0.018438246101140977,
                        -0.29615211486816409
                    ]
                },
                {
                    "weights": [
                        0.027055352926254274,
                        -0.6407889723777771,
                        -0.4975835084915161,
                        -0.3941798210144043,
                        -0.18222850561141969,
                        0.2667062282562256,
                        0.43096137046813967,
                        0.030389130115509034,
                        -0.20915618538856507,
                        0.0723908543586731,
                        0.2059861272573471,
                        -0.03476964682340622,
                        0.46570253372192385,
                        -0.3500664532184601,
                        -0.00578394066542387,
                        0.21278013288974763,
                        0.14144176244735719,
                        0.47769880294799807,
                        -0.5003377795219421,
                        -0.3532981872558594
                    ]
                },
                {
                    "weights": [
                        0.23360300064086915,
                        -0.471561074256897,
                        0.2340819388628006,
                        -1.0405802726745606,
                        -0.6501492857933044,
                        -0.41722118854522707,
                        0.286885142326355,
                        0.10051193088293076,
                        -0.12773039937019349,
                        -0.2559334635734558,
                        0.0010321991285309196,
                        -0.2236834466457367,
                        0.0684373751282692,
                        0.46455585956573489,
                        -0.46611204743385317,
                        -0.3858996033668518,
                        -0.04936152696609497,
                        -0.1973438858985901,
                        -0.12346059083938599,
                        -0.17221450805664063
                    ]
                },
                {
                    "weights": [
                        -0.1079075038433075,
                        0.10250306129455567,
                        0.039417318999767306,
                        -0.49443933367729189,
                        0.9312617182731628,
                        -0.1034618616104126,
                        -0.39275941252708437,
                        -0.03124738670885563,
                        -0.31782764196395876,
                        0.2936587333679199,
                        -0.24487647414207459,
                        0.03186457231640816,
                        0.0013091217260807753,
                        0.30151283740997317,
                        -0.04036852344870567,
                        0.38750317692756655,
                        -0.11659833043813706,
                        -0.37507808208465578,
                        9.619559477869189e-7,
                        0.17915816605091096
                    ]
                },
                {
                    "weights": [
                        -0.03504270687699318,
                        -0.15808427333831788,
                        2.9249229431152345,
                        -0.36392104625701907,
                        -0.2959831953048706,
                        0.023229539394378663,
                        0.3184788227081299,
                        -0.241616353392601,
                        -0.31458526849746706,
                        -0.04212960973381996,
                        -0.3824045658111572,
                        0.10164017230272293,
                        -0.00913898553699255,
                        -0.13330060243606568,
                        -1.824581503868103,
                        -2.770526647567749,
                        -0.1774340718984604,
                        0.4808957576751709,
                        0.3636518120765686,
                        0.3640010952949524
                    ]
                },
                {
                    "weights": [
                        -0.23440562188625337,
                        -0.32698360085487368,
                        0.1536758989095688,
                        0.514842689037323,
                        0.23161451518535615,
                        -0.08162572979927063,
                        0.8342511653900147,
                        0.041009485721588138,
                        0.17428356409072877,
                        -0.2635749876499176,
                        -0.020469065755605699,
                        0.0150001747533679,
                        0.010203561745584011,
                        0.11151391267776489,
                        -0.47914016246795657,
                        -0.43695080280303957,
                        -0.37323248386383059,
                        -0.11957584321498871,
                        -0.6038215160369873,
                        -0.14984630048274995
                    ]
                },
                {
                    "weights": [
                        0.049769144505262378,
                        0.024320341646671296,
                        -0.18413883447647096,
                        0.04400619864463806,
                        0.30402329564094546,
                        -0.0002539438719395548,
                        -0.11486007273197174,
                        -0.07835894823074341,
                        0.004904917441308498,
                        0.4907832443714142,
                        -0.442956805229187,
                        0.07574951648712158,
                        0.45463600754737856,
                        0.07118704169988632,
                        -0.098009392619133,
                        0.3443376421928406,
                        0.06276262551546097,
                        0.022477686405181886,
                        0.30341780185699465,
                        -0.49535179138183596
                    ]
                },
                {
                    "weights": [
                        -0.05066121742129326,
                        0.07492813467979431,
                        0.24288521707057954,
                        -0.18708066642284394,
                        -0.18169409036636353,
                        -0.1731949746608734,
                        0.196706160902977,
                        0.05993218347430229,
                        -0.5604210495948792,
                        0.0825132206082344,
                        0.45305490493774416,
                        0.4746077358722687,
                        0.27637016773223879,
                        0.4600268602371216,
                        -0.05255556106567383,
                        0.044639840722084048,
                        0.07728612422943115,
                        0.025080755352973939,
                        -0.3663351237773895,
                        0.1901773363351822
                    ]
                },
                {
                    "weights": [
                        0.0003207964764442295,
                        0.005779503844678402,
                        -0.0007598564261570573,
                        -0.0017642085440456868,
                        0.2557157278060913,
                        -0.4289029836654663,
                        -0.01927303709089756,
                        -0.47791755199432375,
                        0.031927645206451419,
                        0.40951645374298098,
                        0.3393723964691162,
                        -0.0326073057949543,
                        0.014266488142311573,
                        -1.4340791702270508,
                        0.21695473790168763,
                        0.48367583751678469,
                        -0.14916937053203584,
                        -0.28989505767822268,
                        -0.47066187858581545,
                        0.031454652547836307
                    ]
                },
                {
                    "weights": [
                        -0.03688889741897583,
                        0.20201967656612397,
                        -0.19372540712356568,
                        0.40014219284057619,
                        -0.06109672784805298,
                        -0.005987866781651974,
                        -0.1728518158197403,
                        0.9243078231811523,
                        0.4958125352859497,
                        -0.23999375104904176,
                        0.6903160214424133,
                        -0.1457999348640442,
                        0.013151586055755616,
                        -0.058570921421051028,
                        0.11559325456619263,
                        0.000011006698514393065,
                        0.03861645981669426,
                        0.15793992578983308,
                        0.12529896199703217,
                        0.0033826737198978664
                    ]
                },
                {
                    "weights": [
                        0.19728641211986543,
                        -0.003533661365509033,
                        0.5407023429870606,
                        -0.11627205461263657,
                        -0.16001605987548829,
                        -0.1794193536043167,
                        -0.3711613416671753,
                        -0.000049226709961658344,
                        0.18778415024280549,
                        0.16712288558483125,
                        0.3904266953468323,
                        -0.28578993678092959,
                        0.12208151072263718,
                        0.3277531862258911,
                        -0.22848878800868989,
                        0.4737825095653534,
                        -0.14173997938632966,
                        0.0029159884434193374,
                        -0.43772679567337038,
                        0.7500960826873779
                    ]
                },
                {
                    "weights": [
                        -0.012833429500460625,
                        0.03322416543960571,
                        0.37553825974464419,
                        -0.1328318566083908,
                        0.26182329654693606,
                        0.3802429437637329,
                        -0.16412776708602906,
                        -0.30842137336730959,
                        -0.32748472690582278,
                        -0.22289949655532838,
                        -0.4022260904312134,
                        -0.40555548667907717,
                        -0.4160066545009613,
                        -0.0003981197951361537,
                        -0.1480034440755844,
                        -0.26009321212768557,
                        0.28398704528808596,
                        0.45805585384368899,
                        0.06352049857378006,
                        0.7322528958320618
                    ]
                },
                {
                    "weights": [
                        -0.2906801700592041,
                        -0.007085001561790705,
                        -0.06402146816253662,
                        0.46088922023773196,
                        0.3197101354598999,
                        -0.2387113720178604,
                        0.25189584493637087,
                        -0.003037625690922141,
                        -0.025005634874105455,
                        -0.041007768362760547,
                        -1.6033473014831544,
                        -0.9244208335876465,
                        -0.1367558240890503,
                        -0.003498717909678817,
                        -1.282069444656372,
                        -0.2205725461244583,
                        0.35982394218444826,
                        0.32063910365104678,
                        -0.9487640857696533,
                        -0.023989206179976465
                    ]
                },
                {
                    "weights": [
                        0.17043769359588624,
                        -0.004255186300724745,
                        0.3803243637084961,
                        0.4943738877773285,
                        -0.3776419758796692,
                        0.09982625395059586,
                        0.06963399052619934,
                        0.055578116327524188,
                        -0.5213905572891235,
                        0.02816528081893921,
                        -0.010447544045746327,
                        0.03974413871765137,
                        0.23751197755336762,
                        0.4688322842121124,
                        -0.664727509021759,
                        -0.024757802486419679,
                        -0.05652904137969017,
                        2.620208978652954,
                        -0.0494779534637928,
                        -0.05293065309524536
                    ]
                },
                {
                    "weights": [
                        -0.09502432495355606,
                        0.002867689123377204,
                        -0.21113961935043336,
                        0.06752530485391617,
                        -0.3072298765182495,
                        -0.29248154163360598,
                        -0.10772924870252609,
                        0.3310985565185547,
                        -0.883472204208374,
                        -0.02186882309615612,
                        0.35244736075401308,
                        0.388811856508255,
                        0.0962652713060379,
                        -0.03533896431326866,
                        -0.5023401975631714,
                        0.4080963432788849,
                        -0.4009610414505005,
                        0.05384441837668419,
                        0.036567941308021548,
                        0.1577649712562561
                    ]
                },
                {
                    "weights": [
                        0.00048323566443286836,
                        0.3267449140548706,
                        0.5458536148071289,
                        0.5674741864204407,
                        -0.12511183321475984,
                        0.007166074588894844,
                        -0.049499157816171649,
                        0.2883874773979187,
                        0.049799855798482898,
                        0.18770883977413178,
                        0.42512762546539309,
                        -0.26191890239715578,
                        -0.08486288785934448,
                        0.05393410474061966,
                        -0.01975133828818798,
                        0.08447378128767014,
                        -0.22212480008602143,
                        0.02052529715001583,
                        0.018905702978372575,
                        0.19830654561519624
                    ]
                },
                {
                    "weights": [
                        1.7621142864227296,
                        -0.006345611996948719,
                        0.029941683635115625,
                        -0.19701766967773438,
                        0.15212570130825044,
                        0.08748076856136322,
                        0.19799095392227174,
                        -0.057713449001312259,
                        0.46253514289855959,
                        0.18578767776489259,
                        0.39317643642425539,
                        -0.29771101474761965,
                        0.0011607527267187834,
                        0.00032332452246919274,
                        0.2240157127380371,
                        -0.3980214595794678,
                        0.03736436739563942,
                        0.3547171354293823,
                        -0.14651288092136384,
                        -0.16158291697502137
                    ]
                },
                {
                    "weights": [
                        -1.0693079233169556,
                        -0.04269595071673393,
                        -0.0023594738449901344,
                        0.40684831142425539,
                        0.030392467975616456,
                        -0.25737297534942629,
                        -0.23159633576869965,
                        -0.09605900198221207,
                        0.061520278453826907,
                        0.21113799512386323,
                        0.18961551785469056,
                        0.47042232751846316,
                        0.014856517314910889,
                        0.49635446071624758,
                        -0.016004659235477449,
                        -0.6079729795455933,
                        0.10331469774246216,
                        0.2836880683898926,
                        0.26012545824050906,
                        0.3210814297199249
                    ]
                },
                {
                    "weights": [
                        -0.934823215007782,
                        -0.31377971172332766,
                        -0.03190459683537483,
                        -0.3751000165939331,
                        0.23876522481441499,
                        -0.08967465162277222,
                        -0.3504006862640381,
                        -0.11503583192825318,
                        0.15418222546577454,
                        -0.09983790665864945,
                        -0.893192708492279,
                        0.3633899688720703,
                        -0.019132554531097413,
                        -0.4490029811859131,
                        -0.349994957447052,
                        0.1170993447303772,
                        0.11534911394119263,
                        0.646206796169281,
                        -0.22713778913021089,
                        0.027589276432991029
                    ]
                },
                {
                    "weights": [
                        0.014392554759979248,
                        0.20828042924404145,
                        0.16915863752365113,
                        -0.6494718790054321,
                        0.4810779094696045,
                        -0.0842401385307312,
                        0.36111629009246828,
                        0.1480686217546463,
                        -0.781202495098114,
                        0.03924596682190895,
                        0.0044837272725999359,
                        0.017367184162139894,
                        -0.08503323048353195,
                        0.5472148060798645,
                        -0.23271127045154572,
                        0.403372585773468,
                        0.10987750440835953,
                        -0.06140748783946037,
                        0.24425768852233888,
                        -0.3199872076511383
                    ]
                }
            ]
        },
        {
            "weightsArrays": [
                {
                    "weights": [
                        0.30926084518432619,
                        0.03496893122792244,
                        0.19739042222499848,
                        -0.48000168800354006,
                        -0.18799501657485963,
                        -0.006850076839327812,
                        0.556812584400177,
                        -0.4573325514793396,
                        0.015980830416083337,
                        -0.20271414518356324,
                        -0.25471583008766177,
                        -0.4722104072570801,
                        -7.650993824005127,
                        -5.0755157470703129,
                        0.11863237619400025,
                        0.010287465527653695,
                        -0.35105088353157046,
                        0.2522883415222168,
                        0.14135508239269257,
                        -0.00019599277584347874
                    ]
                }
            ]
        }
    ]
}