{
    "fitness": 2311.777587890625,
    "generation": 768,
    "layerArrays": [
        {
            "weightsArrays": [
                {
                    "weights": [
                        0.002188676269724965,
                        0.2440817952156067,
                        0.23326395452022553,
                        0.21836382150650025,
                        0.23540464043617249,
                        0.010746299289166928,
                        0.011301606893539429,
                        0.3109021484851837,
                        0.2748200595378876,
                        0.4821425676345825
                    ]
                },
                {
                    "weights": [
                        -0.012876484543085099,
                        -0.09966302663087845,
                        -0.2733568847179413,
                        -0.25346967577934267,
                        -0.18658863008022309,
                        0.19919437170028687,
                        0.3573353588581085,
                        0.12976211309432984,
                        -0.4249565601348877,
                        -0.02831679955124855
                    ]
                },
                {
                    "weights": [
                        -0.004542671609669924,
                        0.15515075623989106,
                        -0.08478683233261109,
                        0.4690297842025757,
                        0.24160492420196534,
                        -0.00005758846236858517,
                        0.07044631242752075,
                        0.6546785831451416,
                        0.043473102152347568,
                        0.01854659616947174
                    ]
                },
                {
                    "weights": [
                        0.12351448833942414,
                        0.6827982068061829,
                        -0.27478206157684328,
                        0.48041364550590517,
                        -0.2133258730173111,
                        -0.36529916524887087,
                        0.06256546825170517,
                        -0.43509697914123537,
                        -0.03436480462551117,
                        -0.49382272362709048
                    ]
                },
                {
                    "weights": [
                        -0.001032660249620676,
                        0.08033448457717896,
                        -0.05126708745956421,
                        0.157026469707489,
                        0.16273796558380128,
                        -0.36206865310668948,
                        -0.20148080587387086,
                        0.04160083085298538,
                        0.07960085570812226,
                        -0.005913164000958204
                    ]
                },
                {
                    "weights": [
                        -0.6824411153793335,
                        -0.2325015664100647,
                        0.2929151952266693,
                        0.08716215193271637,
                        0.40845727920532229,
                        -0.0042174458503723148,
                        -0.5235582590103149,
                        0.8533225655555725,
                        -0.24547158181667329,
                        0.29068899154663088
                    ]
                },
                {
                    "weights": [
                        0.0637105330824852,
                        -9.49238980751943e-8,
                        0.3293839991092682,
                        -0.04667705297470093,
                        -0.05036669969558716,
                        -0.3230590522289276,
                        0.275104284286499,
                        0.03235751390457153,
                        0.064913310110569,
                        0.03119891881942749
                    ]
                },
                {
                    "weights": [
                        0.46373188495635989,
                        -0.08145546913146973,
                        0.019619401544332506,
                        0.3547825813293457,
                        0.038819096982479098,
                        0.29621124267578127,
                        0.10484877973794937,
                        -0.5307145118713379,
                        0.22349390387535096,
                        0.3914337158203125
                    ]
                },
                {
                    "weights": [
                        -0.11675774306058884,
                        -0.15212959051132203,
                        0.2909993529319763,
                        -0.3370281457901001,
                        0.04941064119338989,
                        0.08350080996751785,
                        0.1741999238729477,
                        0.15417079627513886,
                        -0.014643391594290734,
                        -0.2965918779373169
                    ]
                },
                {
                    "weights": [
                        0.36326348781585696,
                        0.3611140251159668,
                        0.27745842933654787,
                        -0.448591947555542,
                        0.07755714654922486,
                        -0.053143441677093509,
                        0.2860344648361206,
                        0.1715063899755478,
                        0.31529438495635989,
                        1.1831107139587403
                    ]
                },
                {
                    "weights": [
                        1.088789463043213,
                        -0.2824665307998657,
                        0.2422456592321396,
                        -0.09026817232370377,
                        0.426920086145401,
                        -0.18802112340927125,
                        0.016052983701229097,
                        1.2672535181045533,
                        -0.022005081176757814,
                        0.00001574514499225188
                    ]
                },
                {
                    "weights": [
                        0.0323772132396698,
                        -0.0032275975681841375,
                        -0.24123722314834596,
                        -0.17401324212551118,
                        -0.36908167600631716,
                        -0.09246207773685456,
                        -0.1368207037448883,
                        0.09901239722967148,
                        -0.001522354781627655,
                        0.02455269545316696
                    ]
                },
                {
                    "weights": [
                        0.002470672130584717,
                        0.44741564989089968,
                        0.6440242528915405,
                        0.033134981989860538,
                        -0.28713691234588625,
                        0.13777926564216615,
                        0.1766960471868515,
                        0.1278270184993744,
                        -0.4254128932952881,
                        0.035830169916152957
                    ]
                },
                {
                    "weights": [
                        0.3702649474143982,
                        -0.02517140842974186,
                        0.19005398452281953,
                        -0.32164403796195986,
                        0.27289190888404848,
                        -0.21373027563095094,
                        0.04961071163415909,
                        0.00803905725479126,
                        -0.5695494413375855,
                        0.2042226791381836
                    ]
                },
                {
                    "weights": [
                        0.8203608393669128,
                        -0.1575753539800644,
                        0.19377706944942475,
                        -0.31469738483428957,
                        -0.1702691912651062,
                        2.0434255599975588,
                        -0.0005718469037674367,
                        0.2509223222732544,
                        0.15018092095851899,
                        0.019794398918747903
                    ]
                },
                {
                    "weights": [
                        0.17202670872211457,
                        -0.12026496976613999,
                        -4.7394280433654789,
                        0.30472004413604739,
                        0.13393579423427583,
                        -0.15247157216072083,
                        0.26344743371009829,
                        0.3074049949645996,
                        -0.03038700483739376,
                        -0.05871337279677391
                    ]
                },
                {
                    "weights": [
                        -0.3417022228240967,
                        0.348544716835022,
                        0.003169569419696927,
                        -0.0013929271372035146,
                        -0.3614673614501953,
                        0.19881880283355714,
                        -0.025578508153557779,
                        -0.8363662958145142,
                        0.09397488832473755,
                        0.00007818973244866356
                    ]
                },
                {
                    "weights": [
                        0.21985147893428803,
                        -0.0581093430519104,
                        1.2206004858016968,
                        0.1977447122335434,
                        0.010550087317824364,
                        0.4494436979293823,
                        -0.1956024318933487,
                        -0.474965900182724,
                        -1.366853952407837,
                        0.07991637289524079
                    ]
                },
                {
                    "weights": [
                        8.893939971923829,
                        0.014914095401763916,
                        -0.15296301245689393,
                        -0.9905781745910645,
                        -0.686697244644165,
                        -0.02742023579776287,
                        0.2257576882839203,
                        -0.04248279333114624,
                        1.3888205289840699,
                        0.0000439691539213527
                    ]
                },
                {
                    "weights": [
                        0.2355724424123764,
                        -0.07496468722820282,
                        0.16339868307113648,
                        -0.013552903197705746,
                        0.0010379633167758585,
                        -0.20643562078475953,
                        0.11461073160171509,
                        0.10936230421066284,
                        0.7931413054466248,
                        0.046904243528842929
                    ]
                }
            ]
        },
        {
            "weightsArrays": [
                {
                    "weights": [
                        -0.10902418196201325,
                        0.07218539714813233,
                        -0.42191755771636965,
                        -0.003921091556549072,
                        -0.27881717681884768,
                        0.28122055530548098,
                        0.24590863287448884,
                        0.10719114542007446,
                        0.42925989627838137,
                        0.2925999164581299,
                        -0.012389740906655789,
                        0.0004694662638939917,
                        -0.145691379904747,
                        -0.24696680903434754,
                        3.8426477909088136,
                        0.20921961963176728,
                        -0.13680213689804078,
                        0.006196574307978153,
                        -0.024738511070609094,
                        -0.37646353244781496
                    ]
                },
                {
                    "weights": [
                        -0.01500435546040535,
                        -0.3959621787071228,
                        0.3184540271759033,
                        -0.3941798210144043,
                        -0.37443315982818606,
                        0.3384782075881958,
                        0.43096137046813967,
                        -0.030389130115509034,
                        -0.23968146741390229,
                        -0.0723908543586731,
                        0.3333756923675537,
                        -0.8651549220085144,
                        0.46570253372192385,
                        -0.7366982698440552,
                        -0.00578394066542387,
                        0.21278013288974763,
                        -0.14144176244735719,
                        0.47769880294799807,
                        0.31658774614334109,
                        -0.9064857363700867
                    ]
                },
                {
                    "weights": [
                        0.1292111724615097,
                        -0.471561074256897,
                        0.004984267521649599,
                        0.4138758182525635,
                        -0.6501492857933044,
                        -0.41079479455947878,
                        0.21787303686141969,
                        0.0555080771446228,
                        -0.1035933718085289,
                        -0.1762589067220688,
                        0.003358585527166724,
                        0.2236834466457367,
                        0.0684373751282692,
                        0.1443120837211609,
                        -0.01117390114814043,
                        -0.3858996033668518,
                        0.04936152696609497,
                        -0.1973438858985901,
                        -0.12346059083938599,
                        -0.251667857170105
                    ]
                },
                {
                    "weights": [
                        0.19471417367458344,
                        -0.10250306129455567,
                        -0.039417318999767306,
                        -0.27793800830841067,
                        0.9312617182731628,
                        -0.45601630210876467,
                        -0.39275941252708437,
                        0.03124738670885563,
                        -0.3700897693634033,
                        0.2936587333679199,
                        0.24487647414207459,
                        0.029331853613257409,
                        -0.26598989963531496,
                        1.298082947731018,
                        -0.04036852344870567,
                        0.22773049771785737,
                        -0.1923757791519165,
                        0.06417626142501831,
                        9.619559477869189e-7,
                        0.17915816605091096
                    ]
                },
                {
                    "weights": [
                        -0.16072648763656617,
                        -0.08707767724990845,
                        -1.4740991592407227,
                        -0.41326507925987246,
                        -0.06014329940080643,
                        0.023229539394378663,
                        0.13665960729122163,
                        -0.241616353392601,
                        0.31458526849746706,
                        -0.04212960973381996,
                        -0.3824045658111572,
                        0.5328309535980225,
                        -0.006024746224284172,
                        -0.13330060243606568,
                        -1.824581503868103,
                        -6.214703559875488,
                        -0.1774340718984604,
                        -0.00283345696516335,
                        0.26602527499198916,
                        0.31865137815475466
                    ]
                },
                {
                    "weights": [
                        0.5732577443122864,
                        -0.32698360085487368,
                        0.1536758989095688,
                        0.025352131575345994,
                        0.23161451518535615,
                        -0.08162572979927063,
                        0.8342511653900147,
                        0.0032739315647631885,
                        -0.31758975982666018,
                        -0.2635749876499176,
                        -0.03307286649942398,
                        -0.042444050312042239,
                        0.055439263582229617,
                        0.11151391267776489,
                        0.4996609389781952,
                        -0.43695080280303957,
                        -0.37323248386383059,
                        -0.17991942167282105,
                        0.19377528131008149,
                        -0.14984630048274995
                    ]
                },
                {
                    "weights": [
                        0.22562234103679658,
                        -0.11319548636674881,
                        0.3821636438369751,
                        0.04400619864463806,
                        0.30402329564094546,
                        -0.0002539438719395548,
                        0.251024067401886,
                        -0.36612841486930849,
                        0.004904917441308498,
                        0.2226051539182663,
                        -0.09542436897754669,
                        -0.4827144145965576,
                        0.45463600754737856,
                        -0.07118704169988632,
                        -0.098009392619133,
                        0.20123444497585298,
                        0.06276262551546097,
                        -0.017645882442593576,
                        0.46210622787475588,
                        -0.49535179138183596
                    ]
                },
                {
                    "weights": [
                        -0.081145279109478,
                        -0.04523705691099167,
                        0.12145226448774338,
                        -0.7032679915428162,
                        0.207487553358078,
                        -0.1731949746608734,
                        0.0007383167394436896,
                        0.044721901416778567,
                        -0.6893215775489807,
                        0.0825132206082344,
                        0.45305490493774416,
                        0.4746077358722687,
                        -0.27637016773223879,
                        -0.2798287868499756,
                        -0.026310797780752183,
                        0.044639840722084048,
                        -0.07728612422943115,
                        0.025080755352973939,
                        -0.420727014541626,
                        0.1419834941625595
                    ]
                },
                {
                    "weights": [
                        -0.0003207964764442295,
                        0.0646449401974678,
                        0.0007598564261570573,
                        0.0024406530428677799,
                        -0.2557157278060913,
                        -0.013391532935202122,
                        0.053326938301324847,
                        -0.47791755199432375,
                        0.031927645206451419,
                        -0.25412943959236147,
                        -0.05537853762507439,
                        0.0326073057949543,
                        0.138184055685997,
                        -1.4340791702270508,
                        0.21695473790168763,
                        0.06345807760953903,
                        -0.14916937053203584,
                        -0.012374769896268845,
                        -0.3467288911342621,
                        -0.034760504961013797
                    ]
                },
                {
                    "weights": [
                        0.030461197718977929,
                        0.20201967656612397,
                        -0.12264528125524521,
                        -0.1194341778755188,
                        0.06908014416694641,
                        0.0031557786278426649,
                        0.37725508213043215,
                        -0.9243078231811523,
                        0.4958125352859497,
                        0.13626229763031007,
                        0.5811957716941834,
                        0.0007261518039740622,
                        0.2444915473461151,
                        -0.058570921421051028,
                        0.11559325456619263,
                        0.0001973665930563584,
                        0.06809806078672409,
                        0.2813575863838196,
                        -0.41027379035949709,
                        0.0033826737198978664
                    ]
                },
                {
                    "weights": [
                        0.5444458723068237,
                        0.39507782459259035,
                        0.010776657611131668,
                        0.04019058495759964,
                        -0.16001605987548829,
                        -0.13156887888908387,
                        0.000012286925993976183,
                        -0.00048171740490943193,
                        -0.18778415024280549,
                        0.16712288558483125,
                        0.3904266953468323,
                        0.28578993678092959,
                        0.13346698880195619,
                        0.3277531862258911,
                        0.4868258237838745,
                        0.4737825095653534,
                        -0.22614051401615144,
                        0.020663226023316385,
                        -0.43772679567337038,
                        0.7500960826873779
                    ]
                },
                {
                    "weights": [
                        -0.012833429500460625,
                        -0.03322416543960571,
                        -0.45143628120422366,
                        -0.1328318566083908,
                        -0.6781265139579773,
                        0.3802429437637329,
                        0.3628993034362793,
                        -0.05253356695175171,
                        -0.32748472690582278,
                        -0.22289949655532838,
                        0.21348901093006135,
                        -0.10249918699264527,
                        -0.4160066545009613,
                        -0.0003367830067873001,
                        0.5352373719215393,
                        -0.272318959236145,
                        0.28398704528808596,
                        0.2666444778442383,
                        -0.06910554319620133,
                        0.7322528958320618
                    ]
                },
                {
                    "weights": [
                        0.00023018450883682817,
                        -0.007085001561790705,
                        0.22250507771968842,
                        0.46088922023773196,
                        0.3197101354598999,
                        -0.14466427266597749,
                        0.11407875269651413,
                        0.03248337283730507,
                        -0.025005634874105455,
                        0.45459794998168948,
                        -0.8914279341697693,
                        -0.2140679508447647,
                        -0.16881972551345826,
                        -0.024725256487727166,
                        -0.8288382291793823,
                        -0.21070438623428346,
                        -0.25083857774734499,
                        0.32063910365104678,
                        -0.9487640857696533,
                        -0.023989206179976465
                    ]
                },
                {
                    "weights": [
                        0.17043769359588624,
                        -0.0257882010191679,
                        0.20511852204799653,
                        0.4943738877773285,
                        0.25990989804267886,
                        0.4013139009475708,
                        0.06963399052619934,
                        0.03101557493209839,
                        0.358135461807251,
                        0.31091487407684328,
                        -0.010447544045746327,
                        0.03974413871765137,
                        0.23751197755336762,
                        -0.378139853477478,
                        0.40758347511291506,
                        -0.4375341236591339,
                        -0.05652904137969017,
                        2.158177375793457,
                        -0.2230660319328308,
                        -0.05951874330639839
                    ]
                },
                {
                    "weights": [
                        -0.005418790504336357,
                        -0.002867689123377204,
                        0.3589072823524475,
                        0.11896243691444397,
                        4.663730144500732,
                        0.29248154163360598,
                        0.2852447032928467,
                        0.04014676809310913,
                        -0.45655906200408938,
                        -0.02186882309615612,
                        -0.5804681181907654,
                        0.388811856508255,
                        0.0550045371055603,
                        0.03533896431326866,
                        0.39573752880096438,
                        -0.4080963432788849,
                        -0.00017191846563946456,
                        -0.04724063724279404,
                        0.04116636514663696,
                        -0.0005113021470606327
                    ]
                },
                {
                    "weights": [
                        0.00048323566443286836,
                        -0.14556676149368287,
                        0.5458536148071289,
                        0.9044278860092163,
                        -0.12511183321475984,
                        -0.007166074588894844,
                        -0.624380886554718,
                        0.3511694669723511,
                        0.025241434574127198,
                        0.16530674695968629,
                        0.42512762546539309,
                        -0.5570055246353149,
                        0.05131956934928894,
                        -0.1567208170890808,
                        0.11205186694860459,
                        -0.042511068284511569,
                        0.0017910599708557129,
                        -0.3455393314361572,
                        0.04423768073320389,
                        0.03474417328834534
                    ]
                },
                {
                    "weights": [
                        0.8955778479576111,
                        -0.006345611996948719,
                        0.029941683635115625,
                        0.19701766967773438,
                        -0.2891702651977539,
                        -0.3780287504196167,
                        0.7767488956451416,
                        -0.057713449001312259,
                        -0.3286602795124054,
                        0.18578767776489259,
                        0.2742082476615906,
                        -0.29771101474761965,
                        -0.0011607527267187834,
                        0.0042028771713376049,
                        0.2272050678730011,
                        -0.1286526918411255,
                        -0.03736436739563942,
                        -0.2685260772705078,
                        -0.10587754845619202,
                        0.21183298528194428
                    ]
                },
                {
                    "weights": [
                        -0.875142514705658,
                        -0.8273913860321045,
                        0.027012644335627557,
                        0.40684831142425539,
                        0.030392467975616456,
                        0.25737297534942629,
                        0.23159633576869965,
                        -0.09605900198221207,
                        0.041190315037965778,
                        0.21113799512386323,
                        -0.10306109488010407,
                        -0.42195066809654238,
                        -0.014856517314910889,
                        0.49635446071624758,
                        -0.2702990770339966,
                        0.3916521668434143,
                        0.06696969270706177,
                        -0.6257660984992981,
                        0.10356352478265763,
                        0.284682035446167
                    ]
                },
                {
                    "weights": [
                        0.41745638847351076,
                        -0.31377971172332766,
                        -0.13087934255599976,
                        -0.22539764642715455,
                        -0.23876522481441499,
                        0.2775084972381592,
                        0.04117481783032417,
                        -0.40160512924194338,
                        0.15418222546577454,
                        -0.05957689881324768,
                        -0.4480905532836914,
                        0.053932685405015948,
                        -0.22038322687149049,
                        -0.4490029811859131,
                        -0.349994957447052,
                        -0.1170993447303772,
                        -0.29290804266929629,
                        0.646206796169281,
                        -0.22713778913021089,
                        0.039715468883514407
                    ]
                },
                {
                    "weights": [
                        0.3084810972213745,
                        -0.7789358496665955,
                        0.4659450054168701,
                        -0.6384527683258057,
                        0.745250940322876,
                        -0.5506433248519898,
                        -0.00048127557965926826,
                        0.1480686217546463,
                        -0.548021674156189,
                        -0.026483187451958658,
                        -0.0044837272725999359,
                        -0.4209214448928833,
                        -0.08503323048353195,
                        -0.41187584400177,
                        0.23271127045154572,
                        0.403372585773468,
                        0.10987750440835953,
                        0.46335291862487795,
                        -0.24425768852233888,
                        -0.04288667067885399
                    ]
                }
            ]
        },
        {
            "weightsArrays": [
                {
                    "weights": [
                        -0.30926084518432619,
                        0.08121281862258911,
                        -0.44403350353240969,
                        -0.48000168800354006,
                        -0.014627370983362198,
                        -0.026780499145388604,
                        0.556812584400177,
                        -0.26196885108947756,
                        -0.015980830416083337,
                        -0.20271414518356324,
                        -0.25471583008766177,
                        -0.4722104072570801,
                        -7.650993824005127,
                        -5.0755157470703129,
                        0.2932274043560028,
                        0.010287465527653695,
                        0.35105088353157046,
                        -0.2723613977432251,
                        -0.01306175533682108,
                        -0.00019599277584347874
                    ]
                }
            ]
        }
    ]
}